solver_type L2R_LR
nr_class 10
label 0 1 2 3 4 5 6 7 8 9
nr_feature 129
bias 0.1
w
-0.1866679550312096 -1.664430633221256 0.4822996810470573 0.4297975367395352 -0.9012284762601402 2.010122572113928 5.671596520004394 -0.1897665501314268 -1.769442579513159 -3.632765151220517 
6.507739749862348 -4.934049680366411 -7.391858541892092 -2.483747342756077 -1.191445205106592 -5.355942213979733 1.298764209439564 -0.8425423824129579 2.301197893787037 0.08726600616798934 
5.869370027127292 -5.958318604429567 -1.188131537357647 0.8154556212199909 -5.946594040173189 -2.509618593398283 3.189942078947937 0.9169132788156862 -3.786008685926426 -1.528337894134724 
-2.603982854150836 -1.710274045185467 -0.7113831034886905 1.151715643382395 -0.6423726285279066 -0.9383366130988506 8.450333010347336 0.5516828199134393 -1.548554663039215 -5.041949238078963 
2.141670384569724 -3.014389490900224 -1.821474290152666 2.623157647652825 -2.567030923849377 -1.036766368761039 1.032063743724264 0.03329011188469001 -0.7120537425008084 -5.039995142396563 
1.294974494004489 -0.4038554058779346 -0.006395531087784248 -0.09063460129709539 -0.1837276331890214 -0.1387922594253396 -1.71835817043581 -0.05233753913435391 -0.305683853002041 0.3011569601394288 
3.005978227622164 2.311247897084868 -4.102821829667187 3.098697308601996 -0.06322257666357516 3.275219987319725 1.874094085486573 -1.384883091084818 -2.242101941807563 -1.202647043517135 
-1.789123246731434 2.04771240314153 -2.624477487995575 -3.496714212882555 4.447730266619209 -1.820847663580573 3.600131695056878 -0.1592322429407318 0.4813762283652926 3.119856895498559 
-3.291114418606265 3.156616834350944 0.7632841981375605 -3.272604785116007 2.240969423133873 -3.306179705449912 -0.5574106597114745 -0.8856544554667178 1.720639020305195 1.021586817322389 
-1.815145034659668 -1.02535674491625 -7.494408778649276 -4.236342971272247 9.961477932224607 -0.9663247455418282 -2.723435156712111 -2.290173927346886 -4.040007991049564 -2.965357954687717 
0.2984370320217355 0.8375658390923642 -1.077204135012555 -0.3784709505456814 -0.1403369321109059 1.020083500549303 -0.560206142343729 -3.122639205039465 5.638466498370366 -4.271628661679983 
3.478667765059142 -3.229584136643443 -0.7242968847086174 -1.454292370744214 -1.955586302312406 -0.8543782707219443 -0.03981594119130001 -1.115734984784232 -0.900934191229551 -1.2511549330942 
2.481986701485278 -2.224868406236653 1.699720772375506 -2.09602799271137 -1.869257508416785 -3.520116130238982 -1.074846400002044 -0.5998554928680926 -1.706729957085935 10.9326119073338 
2.719396085444658 -0.6020749115269378 -9.047558654855459 -6.604775481874762 -6.493359185099993 -6.208700535744223 4.797457552778912 -4.613996129074296 -12.74300862062688 -9.612938658001102 
-3.834127577759595 0.7740055545374336 -1.43017371758117 -4.340361445764668 -0.2960247708415134 -5.415401766699795 3.396149799819957 0.2924992555154434 1.058807413331064 -3.772335562390249 
0.8031854210402294 -0.2257930098210934 -2.408169059201839 -2.374355307962485 -2.280929305779293 -2.692001850885317 -0.5456720870763299 -6.199323236609702 -4.985614971643326 7.111829003552443 
-6.334311058082802 -8.331197437147534 -13.85509709942924 5.467528374742966 -1.546038749649811 7.723338346941851 10.54260878788823 -8.551332315360071 -20.95612851955528 -9.384034839848608 
-0.9893604180721427 9.84805760530449 -0.3518835618105927 -5.569377492188203 -3.649462049614412 -4.510505091789658 -3.244286788692637 1.765302664594455 -2.595876661051261 -6.178462451298849 
1.24941262516082 -6.404876997939708 3.124338706107396 4.355668109042047 2.360824026991157 2.425708448448431 3.546841088151011 -1.359452092397132 -6.843337300558713 -4.202216706795335 
1.385949243116537 2.228553530686701 4.250153972106642 -9.067620132504375 -2.165998402605222 -0.03714306940586651 -2.119959206658706 2.407606310747887 -2.11171699656684 1.421328523079577 
-3.021599190834715 -1.326654946741073 6.450337197281806 -1.09866781006208 -4.763671205486604 2.875641169129787 2.468797851463317 1.770776373006974 -1.252901879409399 -3.17342097412027 
-0.7996863952108002 2.884499728947149 1.391496829622725 -0.9941001212013511 -5.317417277942907 1.274368434266094 3.726169173507551 -2.595100657032911 4.170852290091013 1.200033656998188 
7.440869738749422 -6.561251051155056 -13.98390667556792 -1.651161328825551 7.929807584107777 -8.172136066297876 -7.263984869837302 -2.710871061769248 0.6025063549410572 0.3899970818231481 
-2.578442435856804 2.115002146189034 -3.25321834126655 10.03674097589658 -7.434680044771405 -6.68651086065881 1.205050450216339 -7.537494363628742 -6.447410766637431 -4.593866326053725 
1.093198607367821 -4.612909869044587 -6.544188655513212 3.636821141491626 -1.381595259862688 -4.900253401420892 0.7475533240366916 -4.092124828351783 -5.526889629621984 0.6040955732230209 
-2.474455364158009 -0.6138910353834536 -0.2373187745495205 1.069182578110377 -1.833733985254005 4.441129541892971 1.958593172720212 0.1305668595645559 1.725584043250959 -0.1164926941323239 
-5.800851111067105 -3.225119035826834 -5.062097550015324 -1.421736073721218 -1.603303819965832 1.201590096695424 1.516795427724334 5.839333390699814 -1.195074367901928 1.530987914999891 
-0.4255105714579315 -4.687748793886358 -6.208849482158845 -6.311913603031511 -0.03806848917491843 2.399622073060903 -2.23290719841588 2.005451298492031 3.454951944710639 -1.418716516663778 
-2.226924861569023 -2.56544110933278 5.449121432777258 -3.886089256196167 -4.638792513521676 -1.206703650283113 -4.371346531847672 -6.260600284450325 4.779522747382097 -1.656915422046709 
0.2304493478631601 -2.029216723746021 -0.5182550850246515 -0.01175862641016592 -1.414805353661317 -5.650005671591584 -7.139477658391925 -3.937568794684435 1.634595962889442 12.56043521777889 
-1.918505471103579 -0.8280613141626333 3.016654160504951 -5.036236263364532 2.004712739059605 -9.486885547878094 -7.011104188640775 1.025204248209409 -1.587241465083369 -9.703521804005948 
5.138364915279952 -0.3239796236686528 -5.141678861947628 4.247148013818744 -1.130597546174103 -1.061440096249542 -0.9178684387607587 -3.311792865259778 -2.100748873745588 -1.840573525605355 
-0.7410513595679284 -2.239702346910506 11.89407887701181 1.234949043867825 -3.779165684116701 -1.918367326815195 -3.110466817439262 -3.063589331434803 -5.753826337987018 -10.73047582634941 
-7.771412335965683 -3.458435148632405 -4.800456650745886 -5.91962587155181 -3.175515277611241 2.478269835752735 1.848802894944943 -7.094996615793256 -1.334131313014903 8.072204345260909 
-4.291642904190634 1.300420258428793 -0.9568349301550287 4.610062436639859 -4.332399439613681 -3.602221520884846 1.803377713926522 -3.165281163808904 4.707133773199009 1.901545575808681 
-4.333253898258813 -8.884684032189872 -1.506347143931435 -6.734125268895421 5.498338256737132 4.888127676124793 2.524750027259924 -2.084207353883117 -12.25591609014878 -0.2010391480918367 
4.095055248107324 3.362203208808787 -5.930401348972957 -3.086027745663652 -0.4493127998674804 -2.6927721004823 -3.51400983667417 -8.023072485619757 -2.123565984217803 -6.021797828524948 
-0.7401102631553244 -1.460452967463126 -2.968159427981352 -1.322674992725248 -1.651707466787993 -1.723746757936644 -1.969594278523999 1.914165234752661 -0.3185579397450101 2.511912143599903 
-0.3117901933431312 3.671640600259193 -0.2835840679889575 1.620054431209241 -5.169554960719443 -0.8458314399099683 -1.761853676287888 -1.066027893166649 -0.09625721288003669 -1.637147379865826 
-0.8343412071864775 5.656418309261365 -3.141437447162142 0.1411023277202157 0.2498160240151465 -1.854101943127863 1.513423904216193 1.301884343688446 1.675921283961402 1.447847105209818 
-4.352449514125668 -0.3308247605962923 1.628546708330293 2.937752962546644 -4.64764474080531 1.982641456458597 -0.3394232090869945 -3.024312112007963 -1.655045461034055 -2.205342402363298 
-0.1759896298295495 1.236624462798865 -1.559135784507928 -3.81582606339544 2.933561447501162 5.681606254601638 -0.7580236564961834 2.687733139068757 -0.9120706678825925 -3.850946974664905 
-0.4003674933994749 -0.2703798125328027 3.784133341003124 0.5044700946975038 -5.585355348171262 1.024766014346936 -1.540742479283819 -1.673447307164208 -7.419293611964898 -2.127629640046573 
-6.190480529859097 -7.386320265249117 -2.553650541633102 -5.110510437246233 -5.665209671129777 -4.202272620280864 -4.540290349787439 5.378804191317971 -6.729929029128793 3.84500606961003 
-2.25259895501289 3.439502715861541 -5.803730569766868 -2.049489581154319 3.600145180676114 -2.980520970307752 -0.2032482487112635 0.313585138112065 -0.48537877244671 -6.802091839526674 
0.5942918162374301 -4.007985026671578 -4.754263562737343 -3.133437978860245 1.426860666456375 0.7211412371008252 1.312658737902217 -1.644929269505497 4.321778516973692 -1.587733375520342 
-0.810389743099327 0.26750944411553 -3.905542609251077 7.145457110406574 1.010006192976937 3.409256316179231 3.78470840173769 1.005014575298525 -0.4138436605587914 -2.089284514177619 
-3.429180663958854 -1.249812153149935 -1.756021213603143 4.119389621342963 -3.815247770591507 0.7789886589237938 -1.800666950610611 2.304716458153147 3.555430427862441 -3.171701080424474 
-1.972800244545435 -0.7286051552466754 -1.265617183364503 4.704595825447669 0.5419742576227651 -4.006128728554046 -0.1484720477411865 0.1365741591141422 -5.109971035731276 2.556632214366612 
-3.414129806480742 -4.299937421497843 0.989998782350646 10.38389998984662 2.857828172899078 -3.438507945063686 -4.173558117827964 -4.346299504418404 -2.061240253606135 3.65814592679304 
-0.6625298034627806 3.18813419566348 -1.087627002675548 -2.316459552231558 -2.653894491027015 1.957667795991383 -0.3773919037988511 -4.165190419955524 -1.955348506596249 0.5620647084540414 
4.779951188715935 -1.772713555017996 5.33684055557645 2.091354914052072 -9.697372593258544 -3.650700594510477 2.105127819221226 -3.2632073742701 -4.906058582625693 9.051945000880906 
-2.731412216153882 -1.549054367478064 -0.1863583939890489 -1.577367946799067 0.03823341327224435 -1.173260395954172 4.716621320999465 -2.016180215205329 -0.8377438110865196 -1.212547810169962 
2.976870037547352 -1.071107849907589 -0.5351569457631371 0.2650682566043921 0.8822269683239012 -0.1572126246058798 -0.3827791074926875 -0.6208034531893645 -4.864966458774587 -0.315075665696437 
2.363209444602021 -0.9420923435452455 -0.9425964951421513 1.814003690058514 -1.170024232883336 0.06193964041323566 1.766869594140019 -1.726875708097097 -0.2360180257446517 -0.02122739847852334 
-2.785888565404366 -5.581727155755628 -0.5864520902472854 -3.952763124388541 -2.491013785788764 -3.833837686968487 -1.989259754447523 1.405832474147085 2.663300051460151 -4.263943224527841 
3.598632773727972 -2.3571830262183 3.73685798794194 -1.599137043065404 -0.3118039011495601 -0.1306013817153181 -1.519690501331443 -2.018981291486459 1.492601230161645 0.10395715977091 
6.848800451534248 -4.289648804991564 -1.11726136999116 -1.408614706485775 -0.7235410449873028 -1.792516303253929 -2.246014078765039 -4.941109221006553 2.123401901513785 -0.2388641213561388 
-2.622184049523913 1.398416422670536 0.07517130146158868 2.231337035059174 -1.977694417783909 -6.667211391804946 -0.1176636710367301 -3.887098552902351 -3.237933647972871 1.523712707010169 
-1.340253757690946 -8.061175433293846 -3.630613263965359 -1.862607245049475 -1.453620397124776 -1.271665615670032 -7.199191750789096 4.104075604674787 -3.143641940458514 0.358884298881162 
0.4913723886874717 1.443443301594982 -1.7657347443075 3.236328296645107 -6.613836515652402 -0.6152859222020436 1.933224174880785 1.214144639457515 -1.811094950396664 -2.797112078262753 
1.66966552807158 -1.21982006831163 -1.590975107301489 -0.4909415142997589 0.3451643613594306 -4.034183770238073 1.269614578991149 0.8602428044330392 -5.678575832897826 2.344720281419321 
5.489848571382286 -3.704509336876721 -0.8203529090850135 -2.052114378594225 -0.9124525203886645 -1.698413269301262 -1.523667352755112 -2.268743814734807 -0.4673592065080817 -7.713213778217887 
2.889938467815069 -0.4769277325473628 -0.07433842580173319 -0.1159410613643201 -0.1355933860612117 -0.03092379123419347 -0.05005488893003562 0.03363997669591551 -1.96125603137702 -0.3695601724333462 
-5.992645907552987 -4.774751315506405 0.2517890749703725 -1.745392239293126 3.614903034042221 1.474400218062711 -1.135765958485157 -1.359266762317222 2.685296611109068 -2.831805525604053 
0 0 0 0 0 0 0 0 0 0 
-5.35572333692841 -4.739059974045974 -9.585518593102421 -6.520564319178586 -2.333382117167929 0.666188985230733 2.304460038817974 -6.083286459593096 7.408787806442626 -1.573624022472183 
-7.841911263611127 0.8684987430018875 5.307808737405432 -5.212814142791555 0.9969948293589453 -6.509399314317102 -2.464308382416233 0.1916421366196089 -5.728424246389553 1.03908570057999 
-2.524446699030666 -6.284984181326855 -8.747921643984132 -6.95372544452656 4.503153825145535 -7.009018809633606 -8.4087729717138 3.528077186762251 1.755655152078486 3.812135426600854 
1.715075474399343 -5.228802993959634 -2.904403090892938 -2.828185193368589 -1.53034112411551 -2.755073985907663 6.078844686771501 -2.536847825084973 -1.529326068962999 -0.2848670799865993 
-2.100587231272763 1.0705565361423 -3.17392340873969 -6.693979177296332 -1.122052439757508 -5.622049198694029 -4.002113349781262 -4.582162849811237 1.940521444851151 -4.814817834362018 
-0.9202679231633314 -7.944215896326199 -7.264048427391376 -1.229019885208176 -1.380671652816171 -1.994328510873855 -2.079355576236613 1.627437483198124 -1.759063914036542 2.446876159181597 
0.3038080135784576 -0.4416447974480308 1.20249380755869 -0.7966101164602502 -0.2853441480023577 -0.2749340835435474 -0.05924875291295499 -0.4032896512380268 -0.6141434530683114 -0.8355881374937034 
-0.09034724378624495 -1.044256644380938 0.5444578565232256 -2.341907958985035 1.975858888399934 0.6281129420918978 0.3374255916918336 -0.2780497419309286 0.2021645809608953 -0.9247930314023994 
-8.512538259729469 -1.8594163714479 0.9082392055284886 8.823706344470102 -6.230970125824926 -6.20048969444604 -7.707360859796242 0.5758344936022703 1.428798828784061 -11.81880069084256 
-4.47926942541394 1.138084433045378 -1.932406952033089 -2.484948227346919 0.9014653110261965 -0.814359851001122 -0.1457692722763679 1.000468075909909 -1.105936783615908 -2.917970654577607 
0.1004559365010201 0.996868403142279 -0.7823372403757849 -0.9604670867407796 -2.398669692512481 1.945254438924345 -0.06570898963224525 2.10353994678974 -0.1290034029828978 1.356674516369921 
-0.5980422624711794 -3.597790322586942 5.34643592318063 -3.222921147118428 -1.671923100788223 -6.131622813673608 -1.976014363372227 -0.9681637989723884 5.763746616974304 -0.629091049499595 
-1.535658683631729 -0.822046691296948 1.901323620494267 -4.92814692757319 2.041664257577074 0.3517483612873757 0.2226064168443758 -6.310079299339576 -3.390388215131362 -0.3096603345707478 
-1.187284809163928 0.5479958470052937 -1.643343831672691 -1.650628246711682 -4.190972717571542 -2.309808554333517 -3.764824006672965 3.551535127523111 1.081303054758226 0.7580335256551193 
2.313353358322899 -3.764699008935632 -0.1610699746853751 -7.033324608905671 -4.652624742870957 -2.216126760436256 -2.121037115584062 1.608971188573265 0.8453341138993095 0.2833560021692298 
-0.8623044798976365 0.9392300515897084 -0.8358946774229671 -0.7969023088326208 -2.643134605993431 1.164382706766997 1.857665262971105 -1.918950669363072 5.051483750936518 2.502357492775998 
-0.5051216296374467 -2.368505770627638 0.6399198438145682 8.09026994295672 -0.6604993105895225 -1.786877593459546 0.3841519879310469 -1.029546374231441 0.1357241200169275 0.3746009118005774 
0.04006763783157778 -0.8839773371871101 -0.6023742505824894 -2.165673374414589 -0.1449963581028479 -0.4747748900122001 -0.8883489953013871 2.733760689711429 1.016744521444862 -5.804060714056932 
-0.7009045988677913 0.7303791466290598 -8.050373929844499 -3.547737321230562 -0.8259902416386505 -3.687485432167556 0.8414917739035648 -3.261982648556665 5.943978818300275 -9.612812869309327 
0.3530174628130157 8.439247304822707 0.4385721596046611 -9.45447470850536 -5.715367887548671 -2.792721404183051 1.176687830054184 -0.06578915483198369 -3.145866273888647 -4.372885519035393 
-0.1621689960627191 4.426774511117117 -12.42313458765847 -4.126816908068636 -5.204764964015386 -0.5220781174612554 -3.716706853962187 -0.317965846419439 1.987945980287685 -1.377843548753372 
-3.185698345257008 0.2340184156830007 1.537462004666357 3.832742117334435 3.009957039995997 3.613352083600073 -4.872852454760509 -4.503676335576635 -3.220886091409241 1.098256829879091 
0.7078334585523853 -5.8924347549006 0.8160577570933019 -5.668285170787065 -0.9344006743256104 -0.2079062501637227 -0.7665978584673028 2.790852900380045 1.608644637847048 -1.974943631119504 
0.6086250321115145 -3.19738202784893 2.79425895285677 0.8170348289047159 1.045217822863727 2.930100550976709 -2.454283539391534 -2.422417401657084 -0.9451893972823462 -4.165685920311599 
1.723233273076725 -0.4295170032524442 -0.05427380326368443 -0.1343179432632865 0.01048487208354251 -0.1442661865960603 -0.1866981659151359 -0.399159631084787 -0.8704711853185524 -0.2043131020691368 
1.370872021253928 -2.972652902814252 -1.848504259529001 -2.700535833576239 6.392907968286949 -4.404308748041524 -3.795826410553093 -0.6075499853210115 2.316273448729612 -2.032809184987053 
2.347078092065352 -0.3184879936726764 -1.193179587242931 -8.297832683439973 -1.999826304494518 -4.814653855928964 -1.929584298899956 3.586898438878541 -3.407046383376119 -5.460891207866743 
1.252790523252609 -5.557129555271918 -0.7658070535792434 -2.266177649360479 -4.509045526058993 -0.1247935481167448 1.411520245731508 -5.724356259966362 -4.164543674156578 -0.2597842447576972 
1.48968703320223 3.625706994071861 -9.358064403044805 4.001395012275819 2.170043559818009 -3.301067352914969 -2.10163490602743 3.975985433024734 -2.460077037578347 2.102690347247572 
-3.609589838690319 2.086563367201694 5.195906238531359 -4.775771066533181 -4.095068622362979 -0.3755098987194933 -0.6784732302466689 -5.671464124892064 -4.941544631689612 7.993484351584392 
5.09361481892489 -3.483182275424511 -3.630069489419503 -2.942911474788447 1.228734642493506 0.9164372994180583 0.9788197745455451 -1.052676594840867 -0.9812105060381087 -3.111601226031917 
0.70585726461033 -0.4115055042051498 -0.2693727718780016 -0.5810865638540846 -0.2823952897060811 -0.01160868694093106 -0.4158011670320001 -0.07461643980672859 -0.4630789681053495 -2.354513456031921 
2.982889691908334 -4.50937697581185 -1.520899327791619 -3.371291534612079 1.836631031658029 -2.893160877968155 -3.932695478443505 -1.522254638138841 2.959677843060302 -4.334290568493122 
2.470240728398744 -2.759079040661136 -0.7054078964959568 -1.100819409489368 0.9869603368695632 3.021233607699795 -0.4055718170699085 -1.398301090286604 -2.367314228804252 1.995075734606854 
-7.979747152750425 -1.963107902490284 -7.799533180620928 3.425327451186459 2.492906364179579 -0.9782807321644906 -2.823915336967529 -2.316878738490525 -2.730529635747375 -12.07950176747686 
2.544143062697235 -1.597289240538753 -0.096253249390436 -1.365006846989668 0.3879469031591744 -6.886493285045455 -6.802900748770911 7.781497533686896 -7.139044662402273 -5.712504061672909 
1.727599238725291 0.7753406480875099 -4.041996176928059 -3.243600121473824 5.631031597004623 -0.2528488080646952 -0.2062774988082106 3.188473420706133 3.366874540275085 -4.681303321051614 
-0.1235333352434239 3.355816010117679 -1.5531129264837 -1.128384473840616 0.447301633776182 1.271440709921578 -2.304064790607013 -7.687353602980211 0.7766553263154057 -4.982173542091634 
-0.6462359657343819 -0.1005044270225745 -0.6210395338118669 0.314579177881456 -0.1671085883338551 -0.09846991924201456 -0.7978489792990529 0.8718764554947835 -0.5754659944374462 -0.2732551064126938 
-3.272969644977774 -1.784610379545125 -6.117411462161812 -0.6356411642382512 2.932383225908406 -1.991803338194791 -2.298062902751511 -0.9211815099045373 -5.256519667402939 0.2774288123568149 
-1.692169055551447 1.373890813928987 -5.061468567071116 -0.4972531343031444 4.293118631369254 2.144594424565969 -3.162733756155211 0.4381733437898049 -8.319654131022139 -6.043694479511438 
-0.2690623163297871 -0.1858296073297014 -0.04866041323986261 0.8636539878501807 -0.2685124059466308 -0.5929610024432062 -0.1305859850488758 -0.2830190107783398 0.005576706041694203 -0.5668060622873855 
-1.138820842091939 3.356908303604285 -7.970200641275528 -6.540515593170452 -7.672903989009403 8.682028294787839 -6.151766839172676 0.5994046147099543 -1.479198665668092 -2.58576993734067 
-0.8474924433672075 1.149128277001003 -7.399733999384369 0.6999379586925014 0.4495985726473052 -0.4601114614004885 2.680620304375409 1.137316872424962 0.5680888363341 -1.193621878384614 
0.56054518439992 0.515066426652251 2.462277304189536 -0.4824677125133813 4.512671743984699 -2.537055647665539 0.9746058860754656 -2.432539661628845 -2.668178459752583 -0.7333680541561871 
2.256404462697082 0.08959766579945821 2.493341954548407 -0.8579315249220304 -0.34288852738998 -2.485042858941152 0.3340069010393217 -1.71010991865659 -3.759530797491869 4.186702403064138 
3.658156797697054 0.5622737019153408 -6.792972405312796 -9.913151080401027 -0.984853462651359 1.411421382707422 -0.3631308486562042 -5.956189548363959 -2.847692558348429 5.054374020430436 
2.874370743443546 -3.607477902428402 -0.8348588691957173 -4.726698754107243 -3.681781416906905 -0.001510374470015501 -3.865070364528389 -1.490919533507398 0.4676067314727023 -1.107169617725455 
4.375989498167055 -1.055000707864149 -0.8577253237381466 -2.477478681457562 -1.743245634647584 -1.65075664417138 -4.590468649759806 -1.986925805744919 -10.12760801316899 -2.272366733088776 
-0.5431033310784829 0.4427418158729559 -5.943830475184437 -1.131809046138995 6.039819344506279 -0.6714580306192436 -0.3642233606919807 -0.416245841764761 4.793083537582572 -0.8196616623189915 
-4.867764370049089 -6.592078258978517 -2.110646018434269 -0.4109696349519673 1.069526139207888 5.834376979028166 -5.188560470161745 -3.750133945019395 -1.879352909144321 -2.513042849833112 
-3.574558928424618 -0.55881722722397 -3.024983231751827 5.806097549849796 3.455634672412235 0.5939068739742392 -2.728994720016806 -1.142986795336207 -2.050318999795669 1.346122628893202 
1.39336989991894 -0.4384318802663644 -0.9877688158640412 -0.4262599217763738 -0.1605333093772966 -0.1634362361612379 -0.3428021544105804 -0.4638714715296744 -0.3345416557057515 -0.3023328186056252 
0.1847314104321118 -1.381709363774622 -6.272802164416325 -10.76030070776578 0.1524324350152841 -3.381675084607543 1.881219348550798 2.5388597822145 -0.8330655934923138 0.4372870352111028 
-0.1765616366111376 -9.428588060356796 -4.948743903017055 -2.411465970036156 -8.093412631857699 -6.915139495940928 2.355591518025631 1.416010646373463 -6.731294825399981 -7.447907694308034 
0.7159261085413273 2.807821867891093 1.097360229785141 -5.933342330493735 -5.030394194120328 -2.77638136146601 -3.126693070173688 -3.018470340318562 3.815520439827944 -0.8085827864916664 
-5.635123842712816 -8.759089722569788 -10.15420342127059 -0.2598820024429436 -2.691301495749953 -2.073345828734799 10.35993329312012 1.737490372652814 -6.942719076727418 -7.978855582607803 
1.198811766730724 1.752194506807985 -3.982987820081769 -1.190388961101136 1.990281865413847 -1.738013800646836 2.39622869245038 1.403934774084786 -0.8515788814807779 -2.496813464457213 
-0.2283778951247049 -1.396832421611545 -0.9286318271963634 -2.73544502323937 -3.468224656592229 -0.3894501297133321 -2.520093703742493 -0.4865102066496991 -9.271358132282561 5.500473523832552 
0.3804286675291417 -0.5527943028044682 -0.8006836328681153 -0.3219716878678506 -5.136830750725306 -0.4578268910249456 0.5901008640014052 3.190794128347119 -2.514591415440161 -0.131902826709627 
-1.452818038776823 -0.9826591132183399 0.2486221652034543 -3.416484409034395 1.0965013536963 1.51077720242592 -0.1460663015095887 -7.454503174662805 -5.881675305120145 3.829242470585609 
1.71927995377714 -7.916504350279238 -0.8373187550058769 0.6163549825971292 -1.244989805971768 -2.051381352425773 -0.3979302604522356 -0.5967268230566862 1.165769169398235 -3.919798412657243 
-3.530062202283511 -1.958838424149351 -2.194964943254727 -2.315379135852885 -3.805591041927135 -3.517988248544893 -2.037495883777727 0.03841377083949593 -6.120647928398146 -1.321039339945349 
0 0 0 0 0 0 0 0 0 0 
